{
  "version": "cyrus-vision-calibrated-v1",
  "algorithmVersion": "cyrus-vision-v1.1",
  "module": "vision",
  "trainedAt": "2026-05-23T14:37:29.368Z",
  "simulations": 50000,
  "samples": 50000,
  "metrics": {
    "maeBefore": 14.34,
    "maeAfter": 5.022,
    "r2After": 0.9312
  },
  "featureNames": [
    "text_length_norm",
    "language_confidence",
    "findings_density",
    "risks_density",
    "ambiguity_density",
    "warnings_density",
    "qr_scan",
    "qr_safe",
    "has_translation",
    "has_content",
    "interpretation_len_norm",
    "semantic_coherence_proxy",
    "threat_inverse",
    "clarity_proxy",
    "content_completeness_proxy",
    "high_confidence",
    "business_mode",
    "legal_mode",
    "technical_mode",
    "ocr_attempted"
  ],
  "targetLabels": [
    "ocr_quality",
    "language_certainty",
    "threat_inverse",
    "finding_density",
    "risk_severity_inverse",
    "clarity",
    "qr_safety",
    "translation_readiness",
    "interpretation_confidence",
    "content_completeness",
    "semantic_coherence",
    "overall_scan_quality"
  ],
  "weights": [
    [
      0.27560542093450097,
      -3.1012541968998764,
      -16.60950636775936,
      6.380563602548788,
      6.525016060084382,
      -25.90514507405311,
      18.61923117814402,
      -4.822165881884292,
      -0.04575709432437332,
      22.911371071600236,
      -0.8879162169714636,
      0.5459669145114872,
      15.05949026681995,
      6.158227317258119,
      0.9186847527758568,
      32.57713752917015,
      19.061921576825828,
      10.940253938605945,
      0,
      4.292139941603845
    ],
    [
      0.3319101599239411,
      -3.5111957656782256,
      -20.3566379608964,
      -3.8314955652972476,
      -13.772260047414253,
      -15.857308452392477,
      19.16423676078659,
      5.91330648368799,
      -0.10262608944120746,
      26.025126820792867,
      0.15611653122973995,
      8.013885729192532,
      4.0428063291721905,
      7.002076891118646,
      1.1063672093627424,
      25.10756487345712,
      18.587467789715205,
      10.059436799965521,
      0,
      6.860890127712725
    ],
    [
      -0.008641491359423673,
      -1.9044191584405352,
      -16.59859378602165,
      -19.245895339487898,
      -12.993225317487491,
      2.8757996845818647,
      8.812813332994752,
      49.78108327656307,
      0.0039244025914842075,
      14.336581257047559,
      0.9753715081025225,
      6.921457066173675,
      2.9611684567515675,
      3.8751518863576155,
      -0.028804958355214877,
      9.944221525233012,
      7.123239499960647,
      -11.08989552141689,
      0,
      5.523767976079798
    ],
    [
      0.5838501681941698,
      -2.221463744595108,
      6.1181826021422685,
      -0.14901192057841417,
      -1.4859106749048294,
      -16.476984007505415,
      2.077874417149161,
      1.708470780275162,
      -0.08103763406134264,
      15.454720199157313,
      0.37085914863600783,
      17.161725356068843,
      0.0426091522781018,
      4.0762738300020445,
      1.9461672341828022,
      22.116396174240148,
      10.391891905757578,
      16.54152989850897,
      0,
      13.376845896788799
    ],
    [
      -0.043516745733269094,
      -2.239348124789137,
      -23.846134725909835,
      -28.030865593896113,
      -21.79101268758398,
      1.5259604385049346,
      12.362525812609721,
      57.06107279489288,
      0.10940443895167147,
      17.620763286437644,
      0.908786674661039,
      8.769369036680278,
      -6.817312769626584,
      4.823658176711817,
      -0.14505580695929401,
      8.501537150682704,
      6.156218551858543,
      -12.594654547212036,
      0,
      5.258237512641472
    ],
    [
      0.2871478693154121,
      -3.2556979479230033,
      -21.816973799920806,
      -4.4076193920606315,
      -14.374755801834267,
      -15.06225549035387,
      18.502920864511132,
      8.556415597866094,
      -0.12132105848404921,
      23.942054386703358,
      0.1132631574788858,
      6.791097390044095,
      3.5418569767041017,
      6.426300217304989,
      0.9571595695054794,
      24.492917929458113,
      18.01492837148881,
      9.547326394917395,
      0,
      5.439133580265031
    ],
    [
      -0.11591238285573358,
      -2.166537637088413,
      -17.147731168788322,
      -31.356508945587528,
      -6.8022763934959025,
      -9.09185788163752,
      13.53410383606051,
      64.51897751913768,
      -0.09465098743859031,
      14.8537052060612,
      0.38620987889556835,
      10.438806629398124,
      -11.245588527120224,
      3.898874165663702,
      -0.38637460090777676,
      10.27364930738688,
      -8.953383324726266,
      -11.019572520472739,
      0,
      1.319601407384344
    ],
    [
      0.31504523598982603,
      -3.866226311772223,
      -9.611388988197145,
      -1.7105340726713376,
      -0.6252871922975185,
      -12.455784794472818,
      12.725204788300251,
      2.783200776796029,
      -0.06867586416007936,
      23.830941051343665,
      0.54898680383867,
      5.024436411138921,
      5.598551844038592,
      6.0210935320655015,
      1.050150800161484,
      17.850588631164964,
      5.7646965066118305,
      9.259115651980883,
      0,
      11.105736315397298
    ],
    [
      0.36628743339333136,
      -3.2288590858261528,
      -16.34468450332136,
      -9.051515824998509,
      -16.726635986911944,
      -15.172636560089257,
      14.990157605365445,
      12.52476499510464,
      -0.04947870363442725,
      22.8226609570966,
      0.24061485995737175,
      12.475892566318358,
      -3.685557654192794,
      6.050615874801332,
      1.2209581170501618,
      22.28296303672768,
      15.318423955556733,
      10.133084397378875,
      0,
      7.832503427405776
    ],
    [
      0.3871038608726066,
      -3.422756573654084,
      -11.290496522563885,
      -0.8804591792710866,
      -2.631210447304738,
      -17.570268126014877,
      14.72193956801695,
      -2.059842741297184,
      -0.08015105108286594,
      26.094682862380417,
      0.09436766391195978,
      6.921062934674875,
      5.214523804161255,
      7.079485022932686,
      1.2903462119917317,
      22.95925606994869,
      13.247434973943024,
      10.436139672387474,
      0,
      11.372743358472293
    ],
    [
      0.32757783330138546,
      -3.2649503330425986,
      -20.478896749843283,
      -10.585121344118281,
      -19.749336825418396,
      -15.143217673141965,
      15.476704441004934,
      14.203629580367737,
      0.022454686221111898,
      22.555894681616834,
      0.03543741776899092,
      11.074513973749186,
      -4.821055451452958,
      5.935592937938054,
      1.0919261195492083,
      22.63488304309064,
      18.588000694041643,
      8.295198394333347,
      0,
      7.079190304126132
    ],
    [
      0.24877266153208272,
      -3.314299536640698,
      -19.3598759930113,
      -15.883661466389189,
      -11.575956241524763,
      -19.077851437251685,
      15.172986355874727,
      23.239024439236715,
      0.10078650136716899,
      23.120447494150095,
      -0.2901329668649911,
      9.918828813910633,
      -7.186340753545744,
      6.1035768207457535,
      0.8292422120550218,
      22.204850822395496,
      12.356777820470713,
      3.550972225301031,
      0,
      7.9474611876552474
    ]
  ],
  "biases": [
    0.0011358083190842194,
    -0.000027749425505874115,
    -0.0010066952982441535,
    -0.000006810257055178681,
    -0.002022717577190747,
    -0.00008736432387479454,
    -0.0024436699664960315,
    0.00017729554078727006,
    -0.0007273688268014666,
    0.0002078986374129954,
    -0.0008761600562721128,
    -0.0013123367190104318
  ],
  "blend": 0.72,
  "ridgeLambda": 2.5
}