{
  "version": "cyrus-doc-calibrated-v1",
  "algorithmVersion": "cyrus-doc-v1.1",
  "module": "documents",
  "trainedAt": "2026-05-23T14:37:22.329Z",
  "simulations": 50000,
  "samples": 50000,
  "metrics": {
    "maeBefore": 18.098,
    "maeAfter": 5.777,
    "r2After": 0.8823
  },
  "featureNames": [
    "text_length_norm",
    "chunk_count_norm",
    "findings_density",
    "issues_density",
    "actions_density",
    "citations_density",
    "entities_density",
    "type_confidence_score",
    "risk_inverse",
    "conf_score",
    "legal_mode",
    "jurisdiction_set",
    "obligation_ratio",
    "citation_per_chunk",
    "entity_per_kchars",
    "finding_issue_ratio",
    "mandatory_action_ratio",
    "audit_mode",
    "compliance_mode",
    "legal_type",
    "legal_bridge",
    "recommendations_density"
  ],
  "targetLabels": [
    "compliance",
    "legal_risk_inverse",
    "completeness",
    "citation_quality",
    "entity_coverage",
    "obligation_clarity",
    "type_certainty",
    "executive_readiness",
    "audit_readiness",
    "regulatory_alignment",
    "actionability",
    "overall_quality"
  ],
  "weights": [
    [
      -0.15934142710120922,
      0.6049025699371886,
      31.513791620850515,
      0.9062465994220993,
      -15.593617572992121,
      -18.372422716139372,
      -15.319225047634461,
      13.917557893680584,
      19.66682291974619,
      16.950760230396128,
      -7.830102888409741,
      6.539033846546128,
      2.5197786562763724,
      18.007099694995432,
      -3.00449629877771,
      3.6886323050184524,
      2.5197786562763627,
      9.447676035225877,
      -3.380661444612098,
      2.2805707696859208,
      9.010582962746668,
      8.585350727005592
    ],
    [
      -0.410645132361008,
      4.963722603305071,
      56.50460672373501,
      1.0312772673742951,
      -35.12467059664608,
      -5.687417028338864,
      -22.76948025738139,
      20.156876951745957,
      37.068322481174825,
      24.53064663594114,
      -13.031583181751818,
      -1.127927170075843,
      -15.583350350005297,
      32.3110435525152,
      -2.471012493002293,
      4.442540860258906,
      -15.58335035000527,
      3.12779331541981,
      -7.810443644290523,
      1.547647973997645,
      8.316435454527761,
      -13.438912079010269
    ],
    [
      1.821363031439001,
      3.3511667129294658,
      5.439330238502125,
      0.8360846815368457,
      11.17873341660254,
      40.985297356125585,
      22.198884728315978,
      6.043811798282248,
      12.785430149318504,
      5.3134885552923885,
      0.12897446261762535,
      8.722427990978042,
      -2.9402489622953176,
      4.2800278418743245,
      5.22900481122844,
      1.0454155950572663,
      -2.940248962295315,
      -5.2640102707543335,
      0.14485872797932398,
      -2.3054363530473934,
      -4.594988392198496,
      -9.56770352678304
    ],
    [
      1.3008369093799654,
      4.609491493348351,
      1.2924421810666662,
      0.1069847151298254,
      13.0825062567998,
      45.55328986327333,
      24.666515290260943,
      7.643151629006214,
      10.57593129016745,
      7.05578796238068,
      2.41748004857242,
      5.216261424625264,
      -3.416643279748456,
      1.7990114390134266,
      6.177225995684998,
      -0.05103405510047046,
      -3.4166432797484436,
      1.4589979837755083,
      -0.4031647293423717,
      0.45960121920248465,
      -1.9014422856618003,
      -11.53251853371792
    ],
    [
      1.319518258889535,
      2.371028788068946,
      -4.497374113098376,
      -0.4200878759595382,
      21.46157348806054,
      32.757276392091235,
      24.94331862632828,
      2.088927585616615,
      3.522986128563035,
      1.0305966537544557,
      1.193762478479857,
      3.1155137665348747,
      7.368480183817576,
      -1.9927913538963296,
      5.859381071207949,
      -1.2025118574616669,
      7.368480183817574,
      -1.659703504405015,
      1.8317302118791112,
      -2.3340072220623957,
      -4.030046657400039,
      3.242109078867272
    ],
    [
      0.6980220970793977,
      -0.6596524950759485,
      -5.011633861043258,
      -0.7854506955245716,
      23.658130268495515,
      7.337169391341924,
      16.64667471378895,
      -0.37347436274305734,
      1.1787995197836267,
      0.7567889721414514,
      -3.076086478218687,
      2.505519539928178,
      19.479700954538593,
      -4.014530361504983,
      2.5226933076210534,
      -1.3861982690065613,
      19.479700954538558,
      -0.7014829340010209,
      -1.5854148991682322,
      0.6914580220333681,
      2.8735876613961375,
      21.687469659246478
    ],
    [
      1.584660783936882,
      7.0876123120242145,
      16.54223544732798,
      0.3895825618754199,
      6.819884388351005,
      38.35050325981273,
      18.39949765533381,
      9.95023236476252,
      9.962575348325315,
      6.420302966829893,
      10.067749013988733,
      -5.202367740347324,
      -3.6218254727603174,
      11.097965964242631,
      5.529085916497409,
      -0.4181663211374618,
      -3.6218254727603285,
      -0.44695434245791427,
      7.315410810664296,
      -1.6986823516920588,
      -6.149702862454803,
      -9.470906479227288
    ],
    [
      0.9203138640495803,
      3.0073059682146868,
      12.420011402174563,
      -0.053633742887757255,
      5.527292897519285,
      30.852520647159324,
      14.624670414125594,
      7.110290408762292,
      17.959232161682653,
      9.035451931634196,
      -8.729208083236458,
      4.571981353406583,
      -2.797276842870655,
      6.73565086392089,
      4.5913390358961665,
      -0.013984772268587194,
      -2.797276842870651,
      -3.350014452348943,
      -3.937233647408359,
      -2.312003191934082,
      0.16796808758192194,
      -7.3053868935729165
    ],
    [
      0.8744000813737804,
      -0.00597065625656993,
      11.071975186559966,
      -0.1732744615290168,
      1.9613988257100703,
      7.4996753633992554,
      4.364765277275039,
      9.943391171745231,
      12.946863825401367,
      12.262211628919157,
      -10.43135777843805,
      7.2071627585554126,
      3.61020573375189,
      6.184035518935624,
      0.6749006838868334,
      0.6124722048432057,
      3.61020573375189,
      10.574102457890792,
      0.23035680253447227,
      -2.701956569157669,
      5.257801457369259,
      4.296868775337078
    ],
    [
      -1.6000601111424508,
      -2.812976521273187,
      25.499005905321653,
      0.45681794822462446,
      -13.264573836205507,
      -37.04775231377198,
      -20.30014913017398,
      11.917998260043113,
      15.003311815757463,
      15.542980708459309,
      -8.209838834182586,
      15.403341546402906,
      11.077891334223281,
      13.207307879370846,
      -5.439126579468295,
      2.8916352874548155,
      11.077891334223274,
      10.95068332615696,
      -3.1591760294702604,
      3.8734351870081314,
      12.79753314683856,
      21.567157794537522
    ],
    [
      0.5495100584070711,
      -0.3472466590765702,
      2.452771296090584,
      -0.8231254821287266,
      17.378865406371638,
      -0.1673341436011926,
      10.397783535186164,
      2.390331734532648,
      1.0487143019187266,
      2.541011619081878,
      -1.808820440005412,
      -0.5177734392221909,
      18.213389403603585,
      0.2626277921423922,
      2.5657108058027207,
      -1.8763195244135709,
      18.2133894036036,
      3.9656090453857304,
      2.512186258041435,
      -1.3065542775534666,
      1.7078981697286553,
      22.09825285141104
    ],
    [
      0.4497806707106633,
      2.494415976213414,
      14.588500976815242,
      0.06499632407435477,
      1.6628504233197514,
      8.373831300413654,
      4.404954382491118,
      8.562836300908211,
      14.400653556345768,
      10.533401589527882,
      -6.313280368322614,
      6.159306037511163,
      3.615993472935804,
      8.04180014198285,
      0.523014253409358,
      0.5336877968897823,
      3.615993472935809,
      3.4615500412275484,
      -2.6888480706794105,
      0.25527028664873264,
      4.134972887032655,
      4.1935671451022385
    ]
  ],
  "biases": [
    0.0007850653426118015,
    0.002355682257245917,
    0.0009825333106050493,
    0.000890446993111027,
    0.00044938371329550364,
    -0.00026933816128860144,
    0.0019742532782771605,
    0.0009789160744020364,
    0.0003200108842946747,
    -0.00014498282817498875,
    0.00007999085871546185,
    0.0005794659491442644
  ],
  "blend": 0.72,
  "ridgeLambda": 2.5
}